<?xml version="1.0"?>
<MethodSetup Method="DL::DL_CPU">
  <GeneralInfo>
    <Info name="TMVA Release" value="4.2.1 [262657]"/>
    <Info name="ROOT Release" value="6.15/01 [397057]"/>
    <Info name="Creator" value="psk"/>
    <Info name="Date" value="Wed Mar 20 13:40:38 2019"/>
    <Info name="Host" value="Linux ubuntu 4.15.0-46-generic #49-Ubuntu SMP Wed Feb 6 09:33:07 UTC 2019 x86_64 x86_64 x86_64 GNU/Linux"/>
    <Info name="Dir" value="/home/psk/code/root/tmva/tmva/test/DNN/CNN"/>
    <Info name="Training events" value="2000"/>
    <Info name="TrainingTime" value="3.27865410e+00"/>
    <Info name="AnalysisType" value="Classification"/>
  </GeneralInfo>
  <Options>
    <Option name="V" modified="Yes">True</Option>
    <Option name="VerbosityLevel" modified="No">Verbose</Option>
    <Option name="VarTransform" modified="No">None</Option>
    <Option name="H" modified="Yes">False</Option>
    <Option name="CreateMVAPdfs" modified="No">False</Option>
    <Option name="IgnoreNegWeightsInTraining" modified="No">False</Option>
    <Option name="InputLayout" modified="Yes">1|8|8</Option>
    <Option name="BatchLayout" modified="Yes">256|1|64</Option>
    <Option name="Layout" modified="Yes">CONV|6|3|3|1|1|0|0|TANH,MAXPOOL|2|2|2|2,RESHAPE|FLAT,DENSE|10|TANH,DENSE|2|LINEAR</Option>
    <Option name="ErrorStrategy" modified="Yes">CROSSENTROPY</Option>
    <Option name="WeightInitialization" modified="Yes">XAVIERUNIFORM</Option>
    <Option name="Architecture" modified="Yes">CPU</Option>
    <Option name="TrainingStrategy" modified="Yes">LearningRate=1e-1,Momentum=0.9,Repetitions=1,ConvergenceSteps=20,BatchSize=256,TestRepetitions=10,WeightDecay=1e-4,Regularization=L2,DropConfig=0.0+0.5+0.5+0.5,</Option>
  </Options>
  <Variables NVar="64">
    <Variable VarIndex="0" Expression="var0" Label="var0" Title="var0" Unit="" Internal="var0" Type="F" Min="3.40282347e+38" Max="-3.40282347e+38"/>
    <Variable VarIndex="1" Expression="var1" Label="var1" Title="var1" Unit="" Internal="var1" Type="F" Min="3.40282347e+38" Max="-3.40282347e+38"/>
    <Variable VarIndex="2" Expression="var2" Label="var2" Title="var2" Unit="" Internal="var2" Type="F" Min="3.40282347e+38" Max="-3.40282347e+38"/>
    <Variable VarIndex="3" Expression="var3" Label="var3" Title="var3" Unit="" Internal="var3" Type="F" Min="3.40282347e+38" Max="-3.40282347e+38"/>
    <Variable VarIndex="4" Expression="var4" Label="var4" Title="var4" Unit="" Internal="var4" Type="F" Min="3.40282347e+38" Max="-3.40282347e+38"/>
    <Variable VarIndex="5" Expression="var5" Label="var5" Title="var5" Unit="" Internal="var5" Type="F" Min="3.40282347e+38" Max="-3.40282347e+38"/>
    <Variable VarIndex="6" Expression="var6" Label="var6" Title="var6" Unit="" Internal="var6" Type="F" Min="3.40282347e+38" Max="-3.40282347e+38"/>
    <Variable VarIndex="7" Expression="var7" Label="var7" Title="var7" Unit="" Internal="var7" Type="F" Min="3.40282347e+38" Max="-3.40282347e+38"/>
    <Variable VarIndex="8" Expression="var8" Label="var8" Title="var8" Unit="" Internal="var8" Type="F" Min="3.40282347e+38" Max="-3.40282347e+38"/>
    <Variable VarIndex="9" Expression="var9" Label="var9" Title="var9" Unit="" Internal="var9" Type="F" Min="3.40282347e+38" Max="-3.40282347e+38"/>
    <Variable VarIndex="10" Expression="var10" Label="var10" Title="var10" Unit="" Internal="var10" Type="F" Min="3.40282347e+38" Max="-3.40282347e+38"/>
    <Variable VarIndex="11" Expression="var11" Label="var11" Title="var11" Unit="" Internal="var11" Type="F" Min="3.40282347e+38" Max="-3.40282347e+38"/>
    <Variable VarIndex="12" Expression="var12" Label="var12" Title="var12" Unit="" Internal="var12" Type="F" Min="3.40282347e+38" Max="-3.40282347e+38"/>
    <Variable VarIndex="13" Expression="var13" Label="var13" Title="var13" Unit="" Internal="var13" Type="F" Min="3.40282347e+38" Max="-3.40282347e+38"/>
    <Variable VarIndex="14" Expression="var14" Label="var14" Title="var14" Unit="" Internal="var14" Type="F" Min="3.40282347e+38" Max="-3.40282347e+38"/>
    <Variable VarIndex="15" Expression="var15" Label="var15" Title="var15" Unit="" Internal="var15" Type="F" Min="3.40282347e+38" Max="-3.40282347e+38"/>
    <Variable VarIndex="16" Expression="var16" Label="var16" Title="var16" Unit="" Internal="var16" Type="F" Min="3.40282347e+38" Max="-3.40282347e+38"/>
    <Variable VarIndex="17" Expression="var17" Label="var17" Title="var17" Unit="" Internal="var17" Type="F" Min="3.40282347e+38" Max="-3.40282347e+38"/>
    <Variable VarIndex="18" Expression="var18" Label="var18" Title="var18" Unit="" Internal="var18" Type="F" Min="3.40282347e+38" Max="-3.40282347e+38"/>
    <Variable VarIndex="19" Expression="var19" Label="var19" Title="var19" Unit="" Internal="var19" Type="F" Min="3.40282347e+38" Max="-3.40282347e+38"/>
    <Variable VarIndex="20" Expression="var20" Label="var20" Title="var20" Unit="" Internal="var20" Type="F" Min="3.40282347e+38" Max="-3.40282347e+38"/>
    <Variable VarIndex="21" Expression="var21" Label="var21" Title="var21" Unit="" Internal="var21" Type="F" Min="3.40282347e+38" Max="-3.40282347e+38"/>
    <Variable VarIndex="22" Expression="var22" Label="var22" Title="var22" Unit="" Internal="var22" Type="F" Min="3.40282347e+38" Max="-3.40282347e+38"/>
    <Variable VarIndex="23" Expression="var23" Label="var23" Title="var23" Unit="" Internal="var23" Type="F" Min="3.40282347e+38" Max="-3.40282347e+38"/>
    <Variable VarIndex="24" Expression="var24" Label="var24" Title="var24" Unit="" Internal="var24" Type="F" Min="3.40282347e+38" Max="-3.40282347e+38"/>
    <Variable VarIndex="25" Expression="var25" Label="var25" Title="var25" Unit="" Internal="var25" Type="F" Min="3.40282347e+38" Max="-3.40282347e+38"/>
    <Variable VarIndex="26" Expression="var26" Label="var26" Title="var26" Unit="" Internal="var26" Type="F" Min="3.40282347e+38" Max="-3.40282347e+38"/>
    <Variable VarIndex="27" Expression="var27" Label="var27" Title="var27" Unit="" Internal="var27" Type="F" Min="3.40282347e+38" Max="-3.40282347e+38"/>
    <Variable VarIndex="28" Expression="var28" Label="var28" Title="var28" Unit="" Internal="var28" Type="F" Min="3.40282347e+38" Max="-3.40282347e+38"/>
    <Variable VarIndex="29" Expression="var29" Label="var29" Title="var29" Unit="" Internal="var29" Type="F" Min="3.40282347e+38" Max="-3.40282347e+38"/>
    <Variable VarIndex="30" Expression="var30" Label="var30" Title="var30" Unit="" Internal="var30" Type="F" Min="3.40282347e+38" Max="-3.40282347e+38"/>
    <Variable VarIndex="31" Expression="var31" Label="var31" Title="var31" Unit="" Internal="var31" Type="F" Min="3.40282347e+38" Max="-3.40282347e+38"/>
    <Variable VarIndex="32" Expression="var32" Label="var32" Title="var32" Unit="" Internal="var32" Type="F" Min="3.40282347e+38" Max="-3.40282347e+38"/>
    <Variable VarIndex="33" Expression="var33" Label="var33" Title="var33" Unit="" Internal="var33" Type="F" Min="3.40282347e+38" Max="-3.40282347e+38"/>
    <Variable VarIndex="34" Expression="var34" Label="var34" Title="var34" Unit="" Internal="var34" Type="F" Min="3.40282347e+38" Max="-3.40282347e+38"/>
    <Variable VarIndex="35" Expression="var35" Label="var35" Title="var35" Unit="" Internal="var35" Type="F" Min="3.40282347e+38" Max="-3.40282347e+38"/>
    <Variable VarIndex="36" Expression="var36" Label="var36" Title="var36" Unit="" Internal="var36" Type="F" Min="3.40282347e+38" Max="-3.40282347e+38"/>
    <Variable VarIndex="37" Expression="var37" Label="var37" Title="var37" Unit="" Internal="var37" Type="F" Min="3.40282347e+38" Max="-3.40282347e+38"/>
    <Variable VarIndex="38" Expression="var38" Label="var38" Title="var38" Unit="" Internal="var38" Type="F" Min="3.40282347e+38" Max="-3.40282347e+38"/>
    <Variable VarIndex="39" Expression="var39" Label="var39" Title="var39" Unit="" Internal="var39" Type="F" Min="3.40282347e+38" Max="-3.40282347e+38"/>
    <Variable VarIndex="40" Expression="var40" Label="var40" Title="var40" Unit="" Internal="var40" Type="F" Min="3.40282347e+38" Max="-3.40282347e+38"/>
    <Variable VarIndex="41" Expression="var41" Label="var41" Title="var41" Unit="" Internal="var41" Type="F" Min="3.40282347e+38" Max="-3.40282347e+38"/>
    <Variable VarIndex="42" Expression="var42" Label="var42" Title="var42" Unit="" Internal="var42" Type="F" Min="3.40282347e+38" Max="-3.40282347e+38"/>
    <Variable VarIndex="43" Expression="var43" Label="var43" Title="var43" Unit="" Internal="var43" Type="F" Min="3.40282347e+38" Max="-3.40282347e+38"/>
    <Variable VarIndex="44" Expression="var44" Label="var44" Title="var44" Unit="" Internal="var44" Type="F" Min="3.40282347e+38" Max="-3.40282347e+38"/>
    <Variable VarIndex="45" Expression="var45" Label="var45" Title="var45" Unit="" Internal="var45" Type="F" Min="3.40282347e+38" Max="-3.40282347e+38"/>
    <Variable VarIndex="46" Expression="var46" Label="var46" Title="var46" Unit="" Internal="var46" Type="F" Min="3.40282347e+38" Max="-3.40282347e+38"/>
    <Variable VarIndex="47" Expression="var47" Label="var47" Title="var47" Unit="" Internal="var47" Type="F" Min="3.40282347e+38" Max="-3.40282347e+38"/>
    <Variable VarIndex="48" Expression="var48" Label="var48" Title="var48" Unit="" Internal="var48" Type="F" Min="3.40282347e+38" Max="-3.40282347e+38"/>
    <Variable VarIndex="49" Expression="var49" Label="var49" Title="var49" Unit="" Internal="var49" Type="F" Min="3.40282347e+38" Max="-3.40282347e+38"/>
    <Variable VarIndex="50" Expression="var50" Label="var50" Title="var50" Unit="" Internal="var50" Type="F" Min="3.40282347e+38" Max="-3.40282347e+38"/>
    <Variable VarIndex="51" Expression="var51" Label="var51" Title="var51" Unit="" Internal="var51" Type="F" Min="3.40282347e+38" Max="-3.40282347e+38"/>
    <Variable VarIndex="52" Expression="var52" Label="var52" Title="var52" Unit="" Internal="var52" Type="F" Min="3.40282347e+38" Max="-3.40282347e+38"/>
    <Variable VarIndex="53" Expression="var53" Label="var53" Title="var53" Unit="" Internal="var53" Type="F" Min="3.40282347e+38" Max="-3.40282347e+38"/>
    <Variable VarIndex="54" Expression="var54" Label="var54" Title="var54" Unit="" Internal="var54" Type="F" Min="3.40282347e+38" Max="-3.40282347e+38"/>
    <Variable VarIndex="55" Expression="var55" Label="var55" Title="var55" Unit="" Internal="var55" Type="F" Min="3.40282347e+38" Max="-3.40282347e+38"/>
    <Variable VarIndex="56" Expression="var56" Label="var56" Title="var56" Unit="" Internal="var56" Type="F" Min="3.40282347e+38" Max="-3.40282347e+38"/>
    <Variable VarIndex="57" Expression="var57" Label="var57" Title="var57" Unit="" Internal="var57" Type="F" Min="3.40282347e+38" Max="-3.40282347e+38"/>
    <Variable VarIndex="58" Expression="var58" Label="var58" Title="var58" Unit="" Internal="var58" Type="F" Min="3.40282347e+38" Max="-3.40282347e+38"/>
    <Variable VarIndex="59" Expression="var59" Label="var59" Title="var59" Unit="" Internal="var59" Type="F" Min="3.40282347e+38" Max="-3.40282347e+38"/>
    <Variable VarIndex="60" Expression="var60" Label="var60" Title="var60" Unit="" Internal="var60" Type="F" Min="3.40282347e+38" Max="-3.40282347e+38"/>
    <Variable VarIndex="61" Expression="var61" Label="var61" Title="var61" Unit="" Internal="var61" Type="F" Min="3.40282347e+38" Max="-3.40282347e+38"/>
    <Variable VarIndex="62" Expression="var62" Label="var62" Title="var62" Unit="" Internal="var62" Type="F" Min="3.40282347e+38" Max="-3.40282347e+38"/>
    <Variable VarIndex="63" Expression="var63" Label="var63" Title="var63" Unit="" Internal="var63" Type="F" Min="3.40282347e+38" Max="-3.40282347e+38"/>
  </Variables>
  <Spectators NSpec="0"/>
  <Classes NClass="2">
    <Class Name="Signal" Index="0"/>
    <Class Name="Background" Index="1"/>
  </Classes>
  <Transformations NTransformations="0"/>
  <MVAPdfs/>
  <Weights NetDepth="5" InputDepth="1" InputHeight="8" InputWidth="8" BatchSize="1" BatchDepth="256" BatchHeight="1" BatchWidth="64" LossFunction="C" Initialization="U" Regularization="2" OutputFunction="S" WeightDecay="1.0000000000000000e-04">
    <ConvLayer Depth="6" FilterHeight="3" FilterWidth="3" StrideRows="1" StrideCols="1" PaddingHeight="0" PaddingWidth="0" ActivationFunction="3">
      <Weights Rows="6" Columns="9">
        3.4646109776576678e-01  2.5576077633118216e-01  4.0037580354053519e-02  1.5840436525892462e-01  3.2321081827403830e-01  -3.0342761444947330e-01  -6.1668508045437817e-02  -3.5086331512372743e-01  -3.0695266243586650e-01  3.1740149199538803e-01  1.3302607459484234e-01  -3.6627676538377363e-01  4.0482495819933262e-01  2.0021049444082889e-01  -5.0482541378785339e-01  2.5580062514044832e-01  4.1939974892926000e-03  -3.4418315123002446e-02  9.0256087025361934e-02  -5.2996207637272030e-01  -2.3872582715897598e-02  -2.4200503551132971e-01  2.1285533791454658e-01  3.8244428977207305e-02  7.7021914797068949e-02  -2.7114976600950669e-01  -1.4016767532676577e-01  -1.2330742628822494e-01  -3.2107275922580497e-01  -3.8790276605237844e-01  3.4082336071754743e-01  -1.7562135204142831e-02  -1.2161055233508147e-01  3.9823436262669076e-01  1.1377453315703653e-01  -1.1265373393721334e-01  -5.1857338879521694e-02  -3.1297513814993183e-01  4.6927192507304960e-01  -2.6685081035387209e-01  1.5348825216011119e-01  1.0318557122626690e-01  -1.9397204405028987e-01  7.0211093305579286e-02  2.1288229031819794e-01  -1.9182335600527964e-01  4.6202332499669618e-01  1.3147941975763092e-01  -8.4114579729938965e-02  -1.4958948846313022e-01  6.0456504596525830e-02  3.7199916307671183e-01  5.7461376819797724e-02  2.5703409735439448e-01  
      </Weights>
      <Biases Rows="6" Columns="1">
        -4.3109647179262113e-02  -3.8439062375367296e-02  5.9866947300573597e-02  -5.7163912263794463e-02  -5.0924425016725091e-03  2.3057993620511997e-03  
      </Biases>
    </ConvLayer>
    <MaxPoolLayer FrameHeight="2" FrameWidth="2" StrideRows="2" StrideCols="2"/>
    <ReshapeLayer Depth="1" Height="1" Width="54" Flattening="1"/>
    <DenseLayer Width="10" ActivationFunction="3">
      <Weights Rows="10" Columns="54">
        -1.3120338630198300e-01  1.5015953804516333e-01  6.7142217630438816e-02  -9.1966696702003387e-02  -3.1213497963740152e-03  5.5243300591052383e-02  -2.5257514046806279e-01  1.3749633671911851e-01  -1.0248668785059471e-01  4.7291181391041683e-03  -1.5808316059815408e-01  1.6551970928839294e-01  -1.6447538068689857e-01  1.4501230426106371e-01  -3.4958168733233583e-02  4.4110041418450409e-02  -6.0886881820255763e-02  3.9834728661632630e-02  1.3636446305022609e-01  -2.7237128974116864e-01  5.1774939424077175e-02  2.0057392600176649e-01  2.2687898560806016e-03  1.6889513132169298e-01  7.9593990010303557e-04  -7.0654838746722889e-02  -1.4956955260644528e-01  -9.3338981421667466e-02  -3.0314597210629968e-01  1.7394556497999680e-01  -2.0064412261977169e-02  -1.3369487866732969e-03  1.6731187467341901e-01  4.3936182661323660e-02  1.6042220765702600e-01  2.8491080724311901e-01  1.6072547443748281e-01  1.3359956475233176e-01  -1.4452710322527154e-01  1.7380930267929964e-01  -5.4402710653942615e-02  -1.7718082881777933e-01  -1.8520905869268861e-01  -2.7957092619980851e-02  -4.5125715980674184e-02  1.5492657296884391e-01  -8.1407434796752456e-02  -8.3096729750075385e-02  1.6690236370796979e-01  -1.3122045860630238e-01  1.7674655391135533e-01  6.2425855501759227e-02  -1.7559946589002171e-01  -1.8392895188381109e-01  6.8547589755999061e-02  1.5156690913433740e-01  -5.3409524213559045e-02  -2.1920771947898088e-02  1.4075189575790722e-02  -1.3674968982966212e-01  8.0055123503841266e-02  -9.2704949349022986e-02  -1.9949155233120086e-01  4.6239719441391061e-02  -8.4258303644060006e-02  -1.3377223734832730e-01  -1.8844708367515076e-01  -1.0326360459703508e-01  -5.3492060978343421e-02  1.0935546416385911e-01  1.0616842688311953e-01  -1.9374980833077396e-01  7.9894577014733945e-02  1.0072540096361803e-01  1.9044006738938810e-01  -7.2647398540929858e-02  2.0759746955694977e-01  1.5198300434257353e-01  5.4921975698878425e-03  6.1793523276890361e-02  1.7859593844214847e-01  -1.4415613677978195e-01  6.6019997179636997e-02  -6.6813985447835872e-02  1.7400491754027629e-02  -5.1447845515627550e-03  5.0076179029813143e-02  1.2484013941522894e-01  2.3348808123277295e-01  2.9012907770430835e-01  1.2436703856559988e-02  -2.4071694867045926e-02  9.5537030362683198e-02  1.5849479643244682e-01  6.0733046456609777e-02  -5.7153947828393389e-03  1.6548946372338483e-01  -1.5838692679615175e-02  -1.2594944343074005e-01  1.2346290523782949e-01  1.4394994409706843e-01  4.0516587972185443e-02  1.4307568519633987e-01  1.3606125383673692e-01  1.7569113332328429e-01  4.2122059063800878e-02  3.6279643224457460e-02  1.4217971470872703e-02  9.0932719188252700e-02  9.1339672863082727e-02  -4.6262679498352471e-02  1.1238645385467751e-01  1.0991099836064151e-01  -1.2646199557799051e-01  6.0382002818984070e-03  -7.2865570358019507e-02  -8.9485316334139586e-02  -1.2957303615899587e-01  -2.9324868018802682e-02  7.3046844796146357e-02  7.8423996991759254e-02  9.3749360704610360e-02  1.6283916490306907e-01  8.2438317771791475e-02  7.8755336380799165e-02  1.4712427878221238e-01  -6.7375409618284379e-02  2.0242245427650193e-01  6.5491898878108329e-02  -2.1806219459743875e-01  1.6011681771584746e-01  1.6461843217682324e-02  2.5882294773751188e-02  2.3359804684483385e-02  -7.8913811684773530e-03  1.2537018120713719e-01  3.3368892328406799e-02  1.7508363173632327e-01  1.7100180497737724e-01  9.0479257800499049e-02  6.9046785731650920e-02  -4.1583003738222359e-02  1.1763107895756750e-01  -6.4922007310320759e-02  9.5461223876793788e-02  -1.2279186999573098e-01  1.2014287477122304e-02  -1.4256970179690520e-01  -9.5841514565267918e-02  1.8743245739861650e-01  1.4140307052176637e-01  7.5858211738530246e-02  7.5648790345970524e-02  8.9311372861038268e-02  4.5341811522907581e-02  -1.1017634785963168e-01  -1.0926857808422845e-01  1.1099927691762894e-01  5.3133103269116105e-02  -1.5919513397019946e-01  9.8473412012316769e-02  -9.5545742811291315e-02  -2.6143914397454584e-02  1.2654102540267412e-01  -2.0001314675208717e-01  1.3449078659673042e-01  1.3537042052364034e-01  -3.8707445213518960e-02  -1.2290390537685537e-01  -7.9875597438316820e-02  1.7550015934423940e-02  -1.3822558583488440e-01  1.4053266528931163e-01  -1.2318910499829752e-01  1.0122041010603931e-01  -7.5887729018220704e-02  -1.6241250261357948e-02  1.2378341087330101e-01  1.1894065453394735e-01  -1.5838934320692488e-01  -2.5378780349468773e-02  4.4476364023851085e-02  8.5857226206705370e-02  -9.4523113355371637e-03  1.4969717085602788e-01  1.4612168232157680e-01  -3.0723929603769573e-02  8.8548350407576693e-02  1.0476488979901978e-01  5.2090754923568494e-03  4.6603930543756278e-02  -6.3938904964360013e-02  6.2035016843178574e-02  1.3958974216069850e-01  -1.2936019426590117e-01  1.6589908608462639e-01  9.0332242820554451e-02  1.4814808342073438e-01  -1.6757606588866134e-01  3.7289675475629745e-02  3.0402037057038211e-02  -8.7165128857962876e-02  1.1019619293788073e-01  8.6026268810739673e-02  2.1131545149645100e-02  1.3546140862233649e-01  1.2656316574332324e-01  -1.7629907860911914e-01  -1.9821235917741664e-01  3.6001021284541267e-02  -4.5555452001860938e-02  3.6879843382330565e-02  -8.3303652314338103e-02  -3.4829651536549641e-02  6.0634324205569169e-02  4.8800881614992672e-02  3.7650437086720299e-02  4.2220850539921813e-02  2.1787526191165435e-01  -1.7353123242426990e-01  -4.8791107768595798e-02  -1.8174217954820426e-01  -3.4491619347285910e-02  1.0213669316435713e-01  -2.0002782204071967e-01  2.9292625471362941e-02  1.1374788827022790e-01  -1.7903211681107592e-01  -1.9275432632891895e-01  -1.5721891876617833e-01  -7.0619054365337081e-02  -2.5992928579522395e-01  -8.9597181028055750e-02  2.8167396082184472e-02  7.7363332384664696e-02  -1.8040627723917754e-01  -1.0939972822349150e-01  4.2154266644841752e-02  -1.4187981077692155e-01  -1.0000522135818556e-01  -1.9523426209258971e-02  1.2875944564456498e-01  1.4849176412766726e-01  -1.0001171033941741e-01  -1.5674425229779335e-01  -7.9788399745347655e-02  -2.6035758613474794e-02  -9.3920095716244600e-02  1.9306345070534839e-01  1.8438481649124749e-01  4.9837715630151352e-02  1.9330099922089578e-01  -6.4963593621347099e-02  5.2018131091233410e-03  -6.0844749389596949e-02  1.3326906371711045e-01  5.9788407744329211e-02  -8.1780166453769787e-02  7.9381478336678635e-02  -2.9568212845505121e-02  6.9946877332107804e-02  -4.7808382980818562e-04  1.1773940487495893e-01  2.6760662213255217e-02  1.2872425244070138e-01  1.4458354661744813e-01  -1.8840512956579183e-01  1.2675434144497927e-01  -2.0231805527260331e-02  -1.6056781285897999e-02  -1.1695418308287206e-01  -6.3226018701060510e-02  -1.6263130194492809e-01  -1.7718020605796317e-02  -3.1283350489204574e-02  -1.2434982914426833e-01  2.5972428286760652e-01  -1.1171471502722558e-01  -1.5058677901274149e-02  1.9104414258809305e-01  1.6555299950278829e-01  1.0130072549135029e-01  1.1507334696525846e-01  7.7475760882712436e-02  -1.2426216625164108e-01  -4.2478937744203178e-03  -1.6047444826781863e-02  -1.0292175278699352e-01  -8.8780878775001140e-02  1.2731280813561036e-01  5.5421795113759408e-02  -7.5739866339869316e-02  -1.9104444288328901e-01  -9.6803922649875127e-02  9.3325337284702992e-02  2.8003098800139525e-02  1.0871291569776768e-01  3.0994057765742472e-01  1.0681903803019592e-01  1.6229253135215310e-02  1.0092536969605165e-01  -1.9210852753873069e-02  -1.8563920084120436e-01  -1.8311223329908410e-01  -8.1266013762907985e-02  -3.1842068448588007e-01  -1.7630600832544205e-01  -7.2812116348138625e-02  -3.7833760923086055e-04  1.8049531280712336e-01  1.1672332772714336e-02  7.6649135397531478e-04  -7.5080178208805401e-02  6.6845838284197837e-02  7.2483305925855127e-02  1.6464896563172304e-01  1.0125664128682205e-01  -2.0731296317964387e-02  -1.1354832944635573e-01  -1.5837024172417780e-01  5.8011332271471150e-02  -6.6279556940583406e-02  -1.2987773750001236e-01  1.0971326226387465e-01  -8.4783661992960616e-03  1.0345861424970322e-01  2.9078873073852640e-01  -1.2589286437361441e-01  -2.2513527958041301e-02  -1.0193191507769994e-01  -1.4247448654707207e-01  1.6257011955298084e-01  8.7499163214271675e-02  -1.1131295045755142e-01  -2.6043784578964078e-02  1.1674604625416661e-01  -1.8624536709528289e-01  9.7424906534587297e-02  7.1049775902603016e-02  -1.3570333455351041e-01  -1.5230160143417090e-01  1.0640084269630502e-01  1.6704462076989521e-01  9.6144184192627699e-02  1.0646903002200145e-01  2.7090264781997297e-01  7.6143978693692951e-02  2.6270482762099534e-01  -2.0739915113459468e-03  -6.2558532202925052e-02  -8.4032198419069656e-02  -1.4288265440249692e-01  -1.8076454642363113e-02  -1.1356111104425934e-01  -2.6910409441582478e-01  3.0159047795720556e-03  1.8743907211779337e-01  -8.7521556308797238e-02  1.1845727122746215e-01  1.3042531766368173e-01  1.7376312332964938e-01  -2.1337325440939470e-01  2.7829587456304223e-02  -4.9150118718528209e-02  -9.1457512132289920e-02  -5.3350737712375002e-02  3.3755994305632316e-02  4.8796883445749097e-02  -2.2820132057112411e-01  -2.2664344575886213e-02  1.6598083518480666e-01  -5.2156289605024775e-02  1.3344989509136107e-01  -1.9001958692806112e-01  6.3503446250689613e-02  7.2109204716420849e-02  2.1046565268002308e-02  1.1118092202279704e-01  -1.1264391151301753e-02  2.0066416948086413e-01  2.9725994388621840e-01  -1.0053105010717882e-01  5.1887017949485748e-02  -3.5600171511193392e-03  -2.2069180771433386e-01  1.0929860905079185e-01  1.4081282702832018e-01  -1.4148725602420861e-01  -7.5713750822623604e-02  6.9946448920419457e-02  3.1819058452166184e-02  9.6519614013519231e-02  -1.4935061784298678e-01  -2.2028863032213500e-01  -2.0544875683750999e-01  1.3495612021327513e-02  -2.2684580394141438e-02  -2.7645670535800165e-01  -6.9842321703669955e-02  1.1963495466872033e-01  3.7182341206811659e-02  2.1043429485990986e-01  -2.1018583393062267e-02  -1.4711743182923726e-01  8.8161618944295056e-02  -1.1997642067707241e-01  -2.3546396869661715e-01  1.9845951851213084e-01  -1.6634081744186718e-01  6.7150305740293140e-02  2.5639076397063987e-01  -1.4068234071829971e-01  1.1009039143620389e-01  1.4691246845082426e-01  -1.6259206420133471e-01  4.9661114617769689e-02  -2.2168763965996482e-01  -6.8688600848417075e-02  9.6244511825618120e-02  -9.9768210666573029e-02  1.5432510840371326e-02  -1.2401432404337105e-01  -1.1488169409828294e-01  -1.3560202222646639e-01  -1.4965624933537422e-01  -9.8717328650103256e-02  -4.0900110923586253e-03  -9.1338480084197579e-02  1.0345583538332252e-01  7.9702166831350438e-02  1.2362582788266967e-01  -7.4379118775732458e-02  2.5828632310131112e-02  -1.9489517301082084e-02  -1.7434088030496822e-01  -5.0465740058265408e-02  -1.7948988765036328e-01  1.2828268518164795e-01  -1.0925553390718408e-01  4.0303197105030740e-02  -5.8036033428830701e-02  -1.1906851560247406e-01  -1.1710825200696355e-01  -9.4537527837073691e-03  9.2052876144060200e-02  -1.3266914280445611e-02  3.0112098285076369e-02  -1.7493385266557135e-01  2.2274114269194983e-02  -1.8204402942002593e-01  -9.2945295034577519e-02  1.0519949926828984e-01  -4.9173362169419685e-02  -1.3394877196445523e-01  -1.3450240887403719e-01  1.0907400186943395e-01  -3.0418106068895254e-03  -1.1503220320709319e-01  8.8633762766115495e-02  2.5836073229184710e-03  -1.2495752518517637e-01  4.4735572769127291e-02  -6.0949078804986935e-02  1.1235309515293151e-01  -1.4208978254473958e-01  -1.2209893217842784e-01  1.6907842569973833e-01  6.2219403183363560e-02  -9.2006581911765972e-02  1.7474379879630725e-01  -2.2182959480389512e-02  1.1174904675484072e-01  4.0973027603435727e-02  3.6317976626582177e-02  3.3621779090001774e-02  5.5996954614705427e-02  -5.7733333772337411e-03  -4.3256044256849570e-02  -1.3573464665902693e-01  -3.4518677461902292e-02  -1.6973512757258416e-01  -1.6762493933597850e-01  -6.1161739613180846e-02  -3.0652444421175627e-02  -1.4268753315763236e-01  -1.4385019867366254e-02  -1.7269872771280066e-02  -1.5018045552227283e-01  1.9602853034655457e-01  6.9820405816826456e-02  -7.8362767096660249e-02  -1.4311077147091517e-01  -8.6082411277487211e-02  -1.5527076738716711e-01  8.5252686405562397e-02  -1.5692976128257571e-01  1.7822862933968533e-02  -9.2095682138005855e-02  -1.2123593174212026e-01  1.5198215111771179e-01  2.0192144093434933e-01  1.8449780821597747e-01  1.5970206064993778e-01  1.2832656147175528e-01  -1.2347175746451719e-01  -2.2302898420060752e-02  -3.7234600159325261e-02  -1.1873850796185423e-01  -1.8554911485304434e-01  3.2235149865017604e-02  -8.9243276425184287e-02  1.3606227059078865e-01  4.9476920896944172e-02  1.3634864072694108e-01  1.1983779368944990e-01  8.6503100422740203e-02  9.7647530212142467e-02  -7.0873395172718290e-02  5.8602311881074502e-02  -5.5208260783882086e-02  9.4536538391103486e-02  -5.8700259427054563e-02  -8.8792533176419774e-02  7.6881585246059208e-03  -1.5235361839980294e-01  1.7455907026241818e-01  3.8827130939177175e-02  -1.2655465468498681e-01  -1.5126817804814702e-01  1.6858696031331050e-01  1.3229563185163559e-01  -6.6707561751694844e-02  -4.9602147018804395e-02  -3.1373405065424180e-02  1.7239794608650186e-01  9.8193275152469506e-02  2.0410716724494962e-01  -8.8028915943361638e-02  4.5383638795865641e-02  -7.6641971434341594e-02  
      </Weights>
      <Biases Rows="10" Columns="1">
        -1.4156883330202355e-03  -1.4148959990203444e-02  1.5878225824259823e-02  -1.1468387142134428e-02  -9.0817526803702482e-03  6.4909382020865870e-03  -1.9871188156154462e-03  1.1422492419985258e-02  -8.5699842182210655e-03  1.3673359088427749e-02  
      </Biases>
    </DenseLayer>
    <DenseLayer Width="2" ActivationFunction="0">
      <Weights Rows="2" Columns="10">
        4.3111714799418022e-01  5.8101523184660699e-02  -3.5141293545130646e-02  1.6058431195995362e-01  4.4989778424192445e-01  -4.7425235020342144e-01  4.9512793558918444e-01  5.3324175453732481e-01  -1.3180404799203646e-01  6.1776241906860291e-02  -5.3020372763814683e-01  -4.2438994565711763e-01  4.4680887495300742e-01  3.1277072686773161e-01  -1.5305363856648363e-01  4.2298252236015155e-01  -5.4099583669325335e-01  -5.6186985039837689e-01  -9.4588491371683195e-02  2.0800099658011783e-02  
      </Weights>
      <Biases Rows="2" Columns="1">
        3.9172378215431188e-02  -1.7124457212056465e-02  
      </Biases>
    </DenseLayer>
  </Weights>
</MethodSetup>
